digraph Tree {
node [shape=box, style="filled", color="black"] ;
0 [label="compactness error <= 0.018\ngini = 0.498\nsamples = 398\nvalue = [0.0, 0.0]\nclass = 严重", fillcolor="#e581391e"] ;
1 [label="radius error <= 0.236\ngini = 0.097\nsamples = 164\nvalue = [0.0, 0.0]\nclass = 严重", fillcolor="#e58139f1"] ;
0 -> 1 [labeldistance=2.5, labelangle=45, headlabel="True"] ;
2 [label="worst perimeter <= 111.5\ngini = 0.209\nsamples = 64\nvalue = [0.0, 0.0]\nclass = 轻微", fillcolor="#399de5dd"] ;
1 -> 2 ;
3 [label="worst compactness <= 0.323\ngini = 0.0\nsamples = 62\nvalue = [0.0, 0.0]\nclass = 轻微", fillcolor="#399de5ff"] ;
2 -> 3 ;
4 [label="gini = 0.0\nsamples = 61\nvalue = [0.0, 0.0]\nclass = 轻微", fillcolor="#399de5ff"] ;
3 -> 4 ;
5 [label="gini = 0.0\nsamples = 1\nvalue = [0.0, 0.0]\nclass = 严重", fillcolor="#e58139ff"] ;
3 -> 5 ;
6 [label="gini = -0.0\nsamples = 2\nvalue = [0.0, 0.0]\nclass = 严重", fillcolor="#e58139ff"] ;
2 -> 6 ;
7 [label="mean texture <= 18.12\ngini = 0.027\nsamples = 100\nvalue = [0.0, 0.0]\nclass = 严重", fillcolor="#e58139fb"] ;
1 -> 7 ;
8 [label="worst radius <= 19.835\ngini = 0.002\nsamples = 52\nvalue = [0.0, 0.0]\nclass = 轻微", fillcolor="#399de5ff"] ;
7 -> 8 ;
9 [label="gini = 0.0\nsamples = 48\nvalue = [0.0, 0.0]\nclass = 轻微", fillcolor="#399de5ff"] ;
8 -> 9 ;
10 [label="gini = -0.0\nsamples = 4\nvalue = [0.0, 0.0]\nclass = 严重", fillcolor="#e58139ff"] ;
8 -> 10 ;
11 [label="worst perimeter <= 85.09\ngini = 0.004\nsamples = 48\nvalue = [0.0, 0.0]\nclass = 严重", fillcolor="#e58139fe"] ;
7 -> 11 ;
12 [label="gini = 0.0\nsamples = 15\nvalue = [0.0, 0.0]\nclass = 轻微", fillcolor="#399de5ff"] ;
11 -> 12 ;
13 [label="gini = 0.001\nsamples = 33\nvalue = [0.0, 0.0]\nclass = 严重", fillcolor="#e58139ff"] ;
11 -> 13 ;
14 [label="area error <= 29.345\ngini = 0.139\nsamples = 234\nvalue = [0.0, 0.0]\nclass = 轻微", fillcolor="#399de5ea"] ;
0 -> 14 [labeldistance=2.5, labelangle=-45, headlabel="False"] ;
15 [label="worst concave points <= 0.156\ngini = 0.026\nsamples = 113\nvalue = [0.0, 0.0]\nclass = 轻微", fillcolor="#399de5fc"] ;
14 -> 15 ;
16 [label="worst perimeter <= 115.6\ngini = 0.008\nsamples = 97\nvalue = [0.0, 0.0]\nclass = 轻微", fillcolor="#399de5fe"] ;
15 -> 16 ;
17 [label="gini = 0.006\nsamples = 95\nvalue = [0.0, 0.0]\nclass = 轻微", fillcolor="#399de5fe"] ;
16 -> 17 ;
18 [label="gini = -0.0\nsamples = 2\nvalue = [0.0, 0.0]\nclass = 严重", fillcolor="#e58139ff"] ;
16 -> 18 ;
19 [label="gini = 0.0\nsamples = 16\nvalue = [0.0, 0.0]\nclass = 严重", fillcolor="#e58139ff"] ;
15 -> 19 ;
20 [label="worst concavity <= 0.211\ngini = 0.303\nsamples = 121\nvalue = [0.0, 0.0]\nclass = 严重", fillcolor="#e58139c5"] ;
14 -> 20 ;
21 [label="gini = 0.0\nsamples = 13\nvalue = [0.0, 0.0]\nclass = 轻微", fillcolor="#399de5ff"] ;
20 -> 21 ;
22 [label="mean texture <= 14.16\ngini = 0.1\nsamples = 108\nvalue = [0.0, 0.0]\nclass = 严重", fillcolor="#e58139f1"] ;
20 -> 22 ;
23 [label="gini = 0.002\nsamples = 3\nvalue = [0.0, 0.0]\nclass = 轻微", fillcolor="#399de5ff"] ;
22 -> 23 ;
24 [label="gini = 0.016\nsamples = 105\nvalue = [0.0, 0.0]\nclass = 严重", fillcolor="#e58139fd"] ;
22 -> 24 ;
}