digraph Tree {
node [shape=box, style="filled", color="black"] ;
0 [label="concave points error <= 0.01\ngini = 0.249\nsamples = 398\nvalue = [0.0, 0.0]\nclass = 严重", fillcolor="#e58139d4"] ;
1 [label="worst texture <= 26.495\ngini = 0.034\nsamples = 169\nvalue = [0.0, 0.0]\nclass = 严重", fillcolor="#e58139fb"] ;
0 -> 1 [labeldistance=2.5, labelangle=45, headlabel="True"] ;
2 [label="worst perimeter <= 117.45\ngini = 0.208\nsamples = 114\nvalue = [0.0, 0.0]\nclass = 轻微", fillcolor="#399de5dd"] ;
1 -> 2 ;
3 [label="gini = -0.0\nsamples = 109\nvalue = [0.0, 0.0]\nclass = 轻微", fillcolor="#399de5ff"] ;
2 -> 3 ;
4 [label="mean compactness <= 0.073\ngini = 0.008\nsamples = 5\nvalue = [0.0, 0.0]\nclass = 严重", fillcolor="#e58139fe"] ;
2 -> 4 ;
5 [label="gini = 0.0\nsamples = 1\nvalue = [0.0, 0.0]\nclass = 轻微", fillcolor="#399de5ff"] ;
4 -> 5 ;
6 [label="gini = 0.0\nsamples = 4\nvalue = [0.0, 0.0]\nclass = 严重", fillcolor="#e58139ff"] ;
4 -> 6 ;
7 [label="worst concave points <= 0.081\ngini = 0.009\nsamples = 55\nvalue = [0.0, 0.0]\nclass = 严重", fillcolor="#e58139fe"] ;
1 -> 7 ;
8 [label="gini = 0.0\nsamples = 32\nvalue = [0.0, 0.0]\nclass = 轻微", fillcolor="#399de5ff"] ;
7 -> 8 ;
9 [label="concavity error <= 0.032\ngini = 0.001\nsamples = 23\nvalue = [0.0, 0.0]\nclass = 严重", fillcolor="#e58139ff"] ;
7 -> 9 ;
10 [label="gini = 0.0\nsamples = 22\nvalue = [0.0, 0.0]\nclass = 严重", fillcolor="#e58139ff"] ;
9 -> 10 ;
11 [label="gini = 0.0\nsamples = 1\nvalue = [0.0, 0.0]\nclass = 轻微", fillcolor="#399de5ff"] ;
9 -> 11 ;
12 [label="worst concave points <= 0.136\ngini = 0.497\nsamples = 229\nvalue = [0.0, 0.0]\nclass = 轻微", fillcolor="#399de527"] ;
0 -> 12 [labeldistance=2.5, labelangle=-45, headlabel="False"] ;
13 [label="mean area <= 696.25\ngini = 0.118\nsamples = 100\nvalue = [0.0, 0.0]\nclass = 轻微", fillcolor="#399de5ee"] ;
12 -> 13 ;
14 [label="worst compactness <= 0.081\ngini = 0.031\nsamples = 89\nvalue = [0.0, 0.0]\nclass = 轻微", fillcolor="#399de5fb"] ;
13 -> 14 ;
15 [label="gini = 0.015\nsamples = 4\nvalue = [0.0, 0.0]\nclass = 严重", fillcolor="#e58139fd"] ;
14 -> 15 ;
16 [label="gini = 0.0\nsamples = 85\nvalue = [0.0, 0.0]\nclass = 轻微", fillcolor="#399de5ff"] ;
14 -> 16 ;
17 [label="mean texture <= 19.72\ngini = 0.114\nsamples = 11\nvalue = [0.0, 0.0]\nclass = 严重", fillcolor="#e58139ef"] ;
13 -> 17 ;
18 [label="gini = 0.047\nsamples = 5\nvalue = [0.0, 0.0]\nclass = 轻微", fillcolor="#399de5f9"] ;
17 -> 18 ;
19 [label="gini = -0.0\nsamples = 6\nvalue = [0.0, 0.0]\nclass = 严重", fillcolor="#e58139ff"] ;
17 -> 19 ;
20 [label="concavity error <= 0.136\ngini = 0.075\nsamples = 129\nvalue = [0.0, 0.0]\nclass = 严重", fillcolor="#e58139f5"] ;
12 -> 20 ;
21 [label="mean concavity <= 0.082\ngini = 0.028\nsamples = 126\nvalue = [0.0, 0.0]\nclass = 严重", fillcolor="#e58139fb"] ;
20 -> 21 ;
22 [label="gini = 0.009\nsamples = 5\nvalue = [0.0, 0.0]\nclass = 轻微", fillcolor="#399de5fe"] ;
21 -> 22 ;
23 [label="gini = 0.006\nsamples = 121\nvalue = [0.0, 0.0]\nclass = 严重", fillcolor="#e58139fe"] ;
21 -> 23 ;
24 [label="gini = 0.0\nsamples = 3\nvalue = [0.0, 0.0]\nclass = 轻微", fillcolor="#399de5ff"] ;
20 -> 24 ;
}