digraph Tree {
node [shape=box, style="filled", color="black"] ;
0 [label="mean concave points <= 0.051\ngini = 0.468\nsamples = 398\nvalue = [149, 249]\nclass = 轻微", fillcolor="#399de566"] ;
1 [label="worst radius <= 16.83\ngini = 0.1\nsamples = 245\nvalue = [13, 232]\nclass = 轻微", fillcolor="#399de5f1"] ;
0 -> 1 [labeldistance=2.5, labelangle=45, headlabel="True"] ;
2 [label="radius error <= 0.626\ngini = 0.043\nsamples = 230\nvalue = [5, 225]\nclass = 轻微", fillcolor="#399de5f9"] ;
1 -> 2 ;
3 [label="worst smoothness <= 0.178\ngini = 0.026\nsamples = 227\nvalue = [3, 224]\nclass = 轻微", fillcolor="#399de5fc"] ;
2 -> 3 ;
4 [label="gini = 0.018\nsamples = 226\nvalue = [2, 224]\nclass = 轻微", fillcolor="#399de5fd"] ;
3 -> 4 ;
5 [label="gini = 0.0\nsamples = 1\nvalue = [1, 0]\nclass = 严重", fillcolor="#e58139ff"] ;
3 -> 5 ;
6 [label="symmetry error <= 0.025\ngini = 0.444\nsamples = 3\nvalue = [2, 1]\nclass = 严重", fillcolor="#e581397f"] ;
2 -> 6 ;
7 [label="gini = 0.0\nsamples = 2\nvalue = [2, 0]\nclass = 严重", fillcolor="#e58139ff"] ;
6 -> 7 ;
8 [label="gini = 0.0\nsamples = 1\nvalue = [0, 1]\nclass = 轻微", fillcolor="#399de5ff"] ;
6 -> 8 ;
9 [label="worst texture <= 19.91\ngini = 0.498\nsamples = 15\nvalue = [8, 7]\nclass = 严重", fillcolor="#e5813920"] ;
1 -> 9 ;
10 [label="gini = 0.0\nsamples = 5\nvalue = [0, 5]\nclass = 轻微", fillcolor="#399de5ff"] ;
9 -> 10 ;
11 [label="texture error <= 1.378\ngini = 0.32\nsamples = 10\nvalue = [8, 2]\nclass = 严重", fillcolor="#e58139bf"] ;
9 -> 11 ;
12 [label="gini = 0.0\nsamples = 8\nvalue = [8, 0]\nclass = 严重", fillcolor="#e58139ff"] ;
11 -> 12 ;
13 [label="gini = 0.0\nsamples = 2\nvalue = [0, 2]\nclass = 轻微", fillcolor="#399de5ff"] ;
11 -> 13 ;
14 [label="worst texture <= 20.405\ngini = 0.198\nsamples = 153\nvalue = [136, 17]\nclass = 严重", fillcolor="#e58139df"] ;
0 -> 14 [labeldistance=2.5, labelangle=-45, headlabel="False"] ;
15 [label="mean concave points <= 0.091\ngini = 0.408\nsamples = 14\nvalue = [4, 10]\nclass = 轻微", fillcolor="#399de599"] ;
14 -> 15 ;
16 [label="gini = 0.0\nsamples = 10\nvalue = [0, 10]\nclass = 轻微", fillcolor="#399de5ff"] ;
15 -> 16 ;
17 [label="gini = 0.0\nsamples = 4\nvalue = [4, 0]\nclass = 严重", fillcolor="#e58139ff"] ;
15 -> 17 ;
18 [label="worst area <= 718.65\ngini = 0.096\nsamples = 139\nvalue = [132, 7]\nclass = 严重", fillcolor="#e58139f1"] ;
14 -> 18 ;
19 [label="worst texture <= 25.925\ngini = 0.497\nsamples = 13\nvalue = [6, 7]\nclass = 轻微", fillcolor="#399de524"] ;
18 -> 19 ;
20 [label="gini = 0.0\nsamples = 7\nvalue = [0, 7]\nclass = 轻微", fillcolor="#399de5ff"] ;
19 -> 20 ;
21 [label="gini = 0.0\nsamples = 6\nvalue = [6, 0]\nclass = 严重", fillcolor="#e58139ff"] ;
19 -> 21 ;
22 [label="gini = 0.0\nsamples = 126\nvalue = [126, 0]\nclass = 严重", fillcolor="#e58139ff"] ;
18 -> 22 ;
}