digraph Tree {
node [shape=box, style="filled", color="black"] ;
0 [label="mean radius <= 13.275\ngini = 0.397\nsamples = 398\nvalue = [0.0, 0.0]\nclass = 严重", fillcolor="#e581399f"] ;
1 [label="perimeter error <= 4.118\ngini = 0.184\nsamples = 199\nvalue = [0.0, 0.0]\nclass = 轻微", fillcolor="#399de5e2"] ;
0 -> 1 [labeldistance=2.5, labelangle=45, headlabel="True"] ;
2 [label="worst texture <= 32.505\ngini = 0.062\nsamples = 195\nvalue = [0.0, 0.0]\nclass = 轻微", fillcolor="#399de5f7"] ;
1 -> 2 ;
3 [label="worst symmetry <= 0.387\ngini = 0.007\nsamples = 178\nvalue = [0.0, 0.0]\nclass = 轻微", fillcolor="#399de5fe"] ;
2 -> 3 ;
4 [label="gini = 0.0\nsamples = 172\nvalue = [0.0, 0.0]\nclass = 轻微", fillcolor="#399de5ff"] ;
3 -> 4 ;
5 [label="gini = 0.0\nsamples = 6\nvalue = [0.0, 0.0]\nclass = 严重", fillcolor="#e58139ff"] ;
3 -> 5 ;
6 [label="worst concave points <= 0.09\ngini = 0.47\nsamples = 17\nvalue = [0.0, 0.0]\nclass = 严重", fillcolor="#e5813964"] ;
2 -> 6 ;
7 [label="gini = 0.0\nsamples = 11\nvalue = [0.0, 0.0]\nclass = 轻微", fillcolor="#399de5ff"] ;
6 -> 7 ;
8 [label="gini = 0.014\nsamples = 6\nvalue = [0.0, 0.0]\nclass = 严重", fillcolor="#e58139fd"] ;
6 -> 8 ;
9 [label="worst symmetry <= 0.208\ngini = 0.012\nsamples = 4\nvalue = [0.0, 0.0]\nclass = 严重", fillcolor="#e58139fd"] ;
1 -> 9 ;
10 [label="gini = 0.0\nsamples = 1\nvalue = [0.0, 0.0]\nclass = 严重", fillcolor="#e58139ff"] ;
9 -> 10 ;
11 [label="gini = -0.0\nsamples = 3\nvalue = [0.0, 0.0]\nclass = 轻微", fillcolor="#399de5ff"] ;
9 -> 11 ;
12 [label="mean concavity <= 0.072\ngini = 0.229\nsamples = 199\nvalue = [0.0, 0.0]\nclass = 严重", fillcolor="#e58139d8"] ;
0 -> 12 [labeldistance=2.5, labelangle=-45, headlabel="False"] ;
13 [label="compactness error <= 0.012\ngini = 0.494\nsamples = 59\nvalue = [0.0, 0.0]\nclass = 轻微", fillcolor="#399de534"] ;
12 -> 13 ;
14 [label="mean texture <= 19.31\ngini = 0.098\nsamples = 20\nvalue = [0.0, 0.0]\nclass = 严重", fillcolor="#e58139f1"] ;
13 -> 14 ;
15 [label="gini = 0.0\nsamples = 13\nvalue = [0.0, 0.0]\nclass = 轻微", fillcolor="#399de5ff"] ;
14 -> 15 ;
16 [label="gini = 0.001\nsamples = 7\nvalue = [0.0, 0.0]\nclass = 严重", fillcolor="#e58139ff"] ;
14 -> 16 ;
17 [label="worst area <= 1058.0\ngini = 0.0\nsamples = 39\nvalue = [0.0, 0.0]\nclass = 轻微", fillcolor="#399de5ff"] ;
13 -> 17 ;
18 [label="gini = 0.0\nsamples = 37\nvalue = [0.0, 0.0]\nclass = 轻微", fillcolor="#399de5ff"] ;
17 -> 18 ;
19 [label="gini = -0.0\nsamples = 2\nvalue = [0.0, 0.0]\nclass = 严重", fillcolor="#e58139ff"] ;
17 -> 19 ;
20 [label="worst area <= 718.65\ngini = 0.08\nsamples = 140\nvalue = [0.0, 0.0]\nclass = 严重", fillcolor="#e58139f4"] ;
12 -> 20 ;
21 [label="worst concave points <= 0.186\ngini = 0.0\nsamples = 5\nvalue = [0.0, 0.0]\nclass = 轻微", fillcolor="#399de5ff"] ;
20 -> 21 ;
22 [label="gini = 0.0\nsamples = 4\nvalue = [0.0, 0.0]\nclass = 轻微", fillcolor="#399de5ff"] ;
21 -> 22 ;
23 [label="gini = 0.0\nsamples = 1\nvalue = [0.0, 0.0]\nclass = 严重", fillcolor="#e58139ff"] ;
21 -> 23 ;
24 [label="mean concave points <= 0.04\ngini = 0.029\nsamples = 135\nvalue = [0.0, 0.0]\nclass = 严重", fillcolor="#e58139fb"] ;
20 -> 24 ;
25 [label="gini = 0.0\nsamples = 4\nvalue = [0.0, 0.0]\nclass = 轻微", fillcolor="#399de5ff"] ;
24 -> 25 ;
26 [label="gini = 0.009\nsamples = 131\nvalue = [0.0, 0.0]\nclass = 严重", fillcolor="#e58139fe"] ;
24 -> 26 ;
}