digraph Tree {
node [shape=box, style="filled", color="black"] ;
0 [label="worst texture <= 29.335\ngini = 0.474\nsamples = 398\nvalue = [5.526, 8.777]\nclass = 轻微", fillcolor="#399de55e"] ;
1 [label="worst perimeter <= 117.45\ngini = 0.169\nsamples = 297\nvalue = [0.707, 6.888]\nclass = 轻微", fillcolor="#399de5e5"] ;
0 -> 1 [labeldistance=2.5, labelangle=45, headlabel="True"] ;
2 [label="worst concave points <= 0.156\ngini = 0.034\nsamples = 231\nvalue = [0.119, 6.87]\nclass = 轻微", fillcolor="#399de5fb"] ;
1 -> 2 ;
3 [label="mean texture <= 23.86\ngini = 0.016\nsamples = 223\nvalue = [0.055, 6.861]\nclass = 轻微", fillcolor="#399de5fd"] ;
2 -> 3 ;
4 [label="gini = 0.011\nsamples = 221\nvalue = [0.037, 6.861]\nclass = 轻微", fillcolor="#399de5fe"] ;
3 -> 4 ;
5 [label="gini = -0.0\nsamples = 2\nvalue = [0.018, 0.0]\nclass = 严重", fillcolor="#e58139ff"] ;
3 -> 5 ;
6 [label="radius error <= 0.704\ngini = 0.219\nsamples = 8\nvalue = [0.064, 0.009]\nclass = 严重", fillcolor="#e58139db"] ;
2 -> 6 ;
7 [label="gini = 0.0\nsamples = 7\nvalue = [0.064, 0.0]\nclass = 严重", fillcolor="#e58139ff"] ;
6 -> 7 ;
8 [label="gini = -0.0\nsamples = 1\nvalue = [0.0, 0.009]\nclass = 轻微", fillcolor="#399de5ff"] ;
6 -> 8 ;
9 [label="worst concavity <= 0.191\ngini = 0.059\nsamples = 66\nvalue = [0.588, 0.018]\nclass = 严重", fillcolor="#e58139f7"] ;
1 -> 9 ;
10 [label="gini = 0.0\nsamples = 2\nvalue = [0.0, 0.018]\nclass = 轻微", fillcolor="#399de5ff"] ;
9 -> 10 ;
11 [label="gini = 0.0\nsamples = 64\nvalue = [0.588, 0.0]\nclass = 严重", fillcolor="#e58139ff"] ;
9 -> 11 ;
12 [label="concave points error <= 0.012\ngini = 0.405\nsamples = 101\nvalue = [4.819, 1.889]\nclass = 严重", fillcolor="#e581399b"] ;
0 -> 12 [labeldistance=2.5, labelangle=-45, headlabel="False"] ;
13 [label="worst concave points <= 0.081\ngini = 0.077\nsamples = 43\nvalue = [4.369, 0.184]\nclass = 严重", fillcolor="#e58139f4"] ;
12 -> 13 ;
14 [label="gini = 0.0\nsamples = 19\nvalue = [0.0, 0.174]\nclass = 轻微", fillcolor="#399de5ff"] ;
13 -> 14 ;
15 [label="mean compactness <= 0.055\ngini = 0.004\nsamples = 24\nvalue = [4.369, 0.009]\nclass = 严重", fillcolor="#e58139fe"] ;
13 -> 15 ;
16 [label="gini = 0.0\nsamples = 1\nvalue = [0.0, 0.009]\nclass = 轻微", fillcolor="#399de5ff"] ;
15 -> 16 ;
17 [label="gini = 0.0\nsamples = 23\nvalue = [4.369, 0.0]\nclass = 严重", fillcolor="#e58139ff"] ;
15 -> 17 ;
18 [label="mean concave points <= 0.045\ngini = 0.33\nsamples = 58\nvalue = [0.45, 1.705]\nclass = 轻微", fillcolor="#399de5bc"] ;
12 -> 18 ;
19 [label="gini = 0.0\nsamples = 9\nvalue = [0.0, 1.705]\nclass = 轻微", fillcolor="#399de5ff"] ;
18 -> 19 ;
20 [label="gini = 0.0\nsamples = 49\nvalue = [0.45, 0.0]\nclass = 严重", fillcolor="#e58139ff"] ;
18 -> 20 ;
}