digraph Tree {
node [shape=box, style="filled", color="black"] ;
0 [label="worst texture <= 32.26\ngini = 0.404\nsamples = 398\nvalue = [0.0, 0.0]\nclass = 严重", fillcolor="#e581399b"] ;
1 [label="worst area <= 874.85\ngini = 0.357\nsamples = 349\nvalue = [0.0, 0.0]\nclass = 轻微", fillcolor="#399de5b2"] ;
0 -> 1 [labeldistance=2.5, labelangle=45, headlabel="True"] ;
2 [label="worst concave points <= 0.136\ngini = 0.113\nsamples = 246\nvalue = [0.0, 0.0]\nclass = 轻微", fillcolor="#399de5ef"] ;
1 -> 2 ;
3 [label="radius error <= 0.596\ngini = 0.049\nsamples = 217\nvalue = [0.0, 0.0]\nclass = 轻微", fillcolor="#399de5f8"] ;
2 -> 3 ;
4 [label="gini = 0.015\nsamples = 214\nvalue = [0.0, 0.0]\nclass = 轻微", fillcolor="#399de5fd"] ;
3 -> 4 ;
5 [label="gini = 0.004\nsamples = 3\nvalue = [0.0, 0.0]\nclass = 严重", fillcolor="#e58139fe"] ;
3 -> 5 ;
6 [label="mean texture <= 19.71\ngini = 0.378\nsamples = 29\nvalue = [0.0, 0.0]\nclass = 严重", fillcolor="#e58139a9"] ;
2 -> 6 ;
7 [label="gini = 0.034\nsamples = 17\nvalue = [0.0, 0.0]\nclass = 轻微", fillcolor="#399de5fa"] ;
6 -> 7 ;
8 [label="gini = 0.002\nsamples = 12\nvalue = [0.0, 0.0]\nclass = 严重", fillcolor="#e58139ff"] ;
6 -> 8 ;
9 [label="mean texture <= 18.38\ngini = 0.137\nsamples = 103\nvalue = [0.0, 0.0]\nclass = 严重", fillcolor="#e58139eb"] ;
1 -> 9 ;
10 [label="mean concavity <= 0.073\ngini = 0.424\nsamples = 28\nvalue = [0.0, 0.0]\nclass = 轻微", fillcolor="#399de58f"] ;
9 -> 10 ;
11 [label="gini = 0.0\nsamples = 7\nvalue = [0.0, 0.0]\nclass = 轻微", fillcolor="#399de5ff"] ;
10 -> 11 ;
12 [label="gini = 0.0\nsamples = 21\nvalue = [0.0, 0.0]\nclass = 严重", fillcolor="#e58139ff"] ;
10 -> 12 ;
13 [label="worst smoothness <= 0.088\ngini = 0.025\nsamples = 75\nvalue = [0.0, 0.0]\nclass = 严重", fillcolor="#e58139fc"] ;
9 -> 13 ;
14 [label="gini = 0.0\nsamples = 1\nvalue = [0.0, 0.0]\nclass = 轻微", fillcolor="#399de5ff"] ;
13 -> 14 ;
15 [label="gini = 0.0\nsamples = 74\nvalue = [0.0, 0.0]\nclass = 严重", fillcolor="#e58139ff"] ;
13 -> 15 ;
16 [label="worst concave points <= 0.09\ngini = 0.011\nsamples = 49\nvalue = [0.0, 0.0]\nclass = 严重", fillcolor="#e58139fe"] ;
0 -> 16 [labeldistance=2.5, labelangle=-45, headlabel="False"] ;
17 [label="gini = 0.0\nsamples = 13\nvalue = [0.0, 0.0]\nclass = 轻微", fillcolor="#399de5ff"] ;
16 -> 17 ;
18 [label="worst perimeter <= 84.75\ngini = 0.0\nsamples = 36\nvalue = [0.0, 0.0]\nclass = 严重", fillcolor="#e58139ff"] ;
16 -> 18 ;
19 [label="gini = 0.0\nsamples = 1\nvalue = [0.0, 0.0]\nclass = 轻微", fillcolor="#399de5ff"] ;
18 -> 19 ;
20 [label="mean concavity <= 0.046\ngini = 0.0\nsamples = 35\nvalue = [0.0, 0.0]\nclass = 严重", fillcolor="#e58139ff"] ;
18 -> 20 ;
21 [label="gini = 0.0\nsamples = 1\nvalue = [0.0, 0.0]\nclass = 轻微", fillcolor="#399de5ff"] ;
20 -> 21 ;
22 [label="gini = 0.0\nsamples = 34\nvalue = [0.0, 0.0]\nclass = 严重", fillcolor="#e58139ff"] ;
20 -> 22 ;
}